=== Run information ===

Scheme:       weka.classifiers.trees.UserClassifier 
Relation:     optraining
Instances:    1000
Attributes:   65
              1
              2
              3
              4
              5
              6
              7
              8
              9
              10
              11
              12
              13
              14
              15
              16
              17
              18
              19
              20
              21
              22
              23
              24
              25
              26
              27
              28
              29
              30
              31
              32
              33
              34
              35
              36
              37
              38
              39
              40
              41
              42
              43
              44
              45
              46
              47
              48
              49
              50
              51
              52
              53
              54
              55
              56
              57
              58
              59
              60
              61
              62
              63
              64
              class
Test mode:    user supplied test set:  size unknown (reading incrementally)

=== Classifier model (full training set) ===


Split on class AND 43 (In Set): N22 9(97.0)
Split on class AND 43 (Not in Set)
|   Split on class AND 44 (In Set): N24 3(104.0)
|   Split on class AND 44 (Not in Set): N25 Classified by weka.classifiers.trees.J48

N25 {
J48 pruned tree
------------------

61 <= 5
|   13 <= 3: 4 (6.0)
|   13 > 3
|   |   55 <= 3
|   |   |   62 <= 7
|   |   |   |   54 <= 0
|   |   |   |   |   30 <= 0: 5 (6.0/1.0)
|   |   |   |   |   30 > 0: 7 (102.0)
|   |   |   |   54 > 0
|   |   |   |   |   18 <= 1: 5 (3.0/1.0)
|   |   |   |   |   18 > 1: 0 (2.0)
|   |   |   62 > 7: 1 (2.0)
|   |   55 > 3: 2 (5.0)
61 > 5
|   37 <= 0
|   |   39 <= 0
|   |   |   34 <= 4: 2 (4.0)
|   |   |   34 > 4: 6 (2.0)
|   |   39 > 0
|   |   |   43 <= 5: 5 (11.0)
|   |   |   43 > 5
|   |   |   |   29 <= 12: 0 (98.0/1.0)
|   |   |   |   29 > 12
|   |   |   |   |   5 <= 14: 8 (2.0)
|   |   |   |   |   5 > 14: 5 (2.0/1.0)
|   37 > 0
|   |   59 <= 1
|   |   |   53 <= 9
|   |   |   |   22 <= 1
|   |   |   |   |   61 <= 11: 1 (3.0)
|   |   |   |   |   61 > 11: 6 (65.0)
|   |   |   |   22 > 1
|   |   |   |   |   34 <= 4: 8 (12.0/1.0)
|   |   |   |   |   34 > 4: 4 (2.0)
|   |   |   53 > 9
|   |   |   |   21 <= 14
|   |   |   |   |   63 <= 0
|   |   |   |   |   |   38 <= 1: 8 (2.0)
|   |   |   |   |   |   38 > 1: 4 (73.0/2.0)
|   |   |   |   |   63 > 0: 6 (6.0/1.0)
|   |   |   |   21 > 14
|   |   |   |   |   41 <= 0
|   |   |   |   |   |   39 <= 4: 1 (56.0)
|   |   |   |   |   |   39 > 4: 4 (2.0)
|   |   |   |   |   41 > 0: 4 (4.0)
|   |   59 > 1
|   |   |   20 <= 14
|   |   |   |   43 <= 5
|   |   |   |   |   63 <= 6
|   |   |   |   |   |   21 <= 14
|   |   |   |   |   |   |   23 <= 3
|   |   |   |   |   |   |   |   44 <= 13: 5 (78.0/1.0)
|   |   |   |   |   |   |   |   44 > 13: 8 (2.0)
|   |   |   |   |   |   |   23 > 3: 2 (3.0/1.0)
|   |   |   |   |   |   21 > 14: 1 (4.0/1.0)
|   |   |   |   |   63 > 6
|   |   |   |   |   |   52 <= 9: 5 (2.0)
|   |   |   |   |   |   52 > 9: 2 (67.0)
|   |   |   |   43 > 5
|   |   |   |   |   22 <= 1
|   |   |   |   |   |   49 <= 0
|   |   |   |   |   |   |   21 <= 6: 6 (29.0/1.0)
|   |   |   |   |   |   |   21 > 6: 2 (3.0)
|   |   |   |   |   |   49 > 0: 4 (2.0)
|   |   |   |   |   22 > 1
|   |   |   |   |   |   28 <= 9
|   |   |   |   |   |   |   34 <= 2
|   |   |   |   |   |   |   |   46 <= 6: 2 (16.0)
|   |   |   |   |   |   |   |   46 > 6: 8 (3.0)
|   |   |   |   |   |   |   34 > 2: 0 (4.0)
|   |   |   |   |   |   28 > 9: 8 (63.0)
|   |   |   20 > 14
|   |   |   |   51 <= 1: 5 (4.0/1.0)
|   |   |   |   51 > 1
|   |   |   |   |   50 <= 3
|   |   |   |   |   |   28 <= 11: 8 (3.0/1.0)
|   |   |   |   |   |   28 > 11
|   |   |   |   |   |   |   53 <= 13: 8 (4.0/1.0)
|   |   |   |   |   |   |   53 > 13: 1 (39.0)
|   |   |   |   |   50 > 3: 8 (3.0/1.0)

Number of Leaves  : 	41

Size of the tree : 	81

}

Time taken to build model: 33.82 seconds

=== Evaluation on test set ===

Time taken to test model on supplied test set: 0.18 seconds

=== Summary ===

Correctly Classified Instances        2766               65.545  %
Incorrectly Classified Instances      1454               34.455  %
Kappa statistic                          0.6173
Mean absolute error                      0.0912
Root mean squared error                  0.2389
Relative absolute error                 50.6617 %
Root relative squared error             79.6057 %
Total Number of Instances             4220     

=== Detailed Accuracy By Class ===

                 TP Rate  FP Rate  Precision  Recall   F-Measure  MCC      ROC Area  PRC Area  Class
                 0.964    0.019    0.845      0.964    0.900      0.891    0.972     0.818     0
                 0.740    0.054    0.605      0.740    0.666      0.629    0.843     0.474     1
                 0.699    0.043    0.640      0.699    0.668      0.631    0.828     0.477     2
                 0.000    0.000    0.000      0.000    0.000      0.000    0.500     0.103     3
                 0.856    0.039    0.712      0.856    0.778      0.754    0.908     0.625     4
                 0.803    0.134    0.393      0.803    0.528      0.497    0.835     0.335     5
                 0.901    0.017    0.854      0.901    0.877      0.863    0.942     0.779     6
                 0.848    0.014    0.873      0.848    0.860      0.845    0.917     0.755     7
                 0.762    0.062    0.578      0.762    0.657      0.620    0.850     0.464     8
                 0.000    0.000    0.000      0.000    0.000      0.000    0.500     0.100     9
Weighted Avg.    0.655    0.038    0.549      0.655    0.592      0.572    0.809     0.492     

=== Confusion Matrix ===

   a   b   c   d   e   f   g   h   i   j   <-- classified as
 402   0   2   0   6   0   2   0   5   0 |   a = 0
   0 313   6   0   9  14  14   4  63   0 |   b = 1
   2  19 292   0   0  26  13   0  66   0 |   c = 2
   3 121  38   0  12 221   2   1  35   0 |   d = 3
  18  14   0   0 369   5   7  10   8   0 |   e = 4
  26   4   2   0  17 330  18   1  13   0 |   f = 5
   5   8   9   0   4   0 381   0  16   0 |   g = 6
   3   1   7   0  38  13   0 356   2   0 |   h = 7
   4  12  32   0  12  24   8   9 323   0 |   i = 8
  13  25  68   0  51 207   1  27  28   0 |   j = 9

